<?xml version="1.0"?>
<opencv_storage>
<stage5>
  <maxWeakCount>22</maxWeakCount>
  <stageThreshold>-1.2761642932891846e+00</stageThreshold>
  <weakClassifiers>
    <_>
      <internalNodes>
        0 -1 61690 3.8499213755130768e-02</internalNodes>
      <leafValues>
        -4.8667851090431213e-01 4.1121494770050049e-01</leafValues></_>
    <_>
      <internalNodes>
        0 -1 61690 -2.9450248926877975e-02</internalNodes>
      <leafValues>
        5.4282462596893311e-01 -2.5015646219253540e-01</leafValues></_>
    <_>
      <internalNodes>
        0 -1 2367 1.4000406861305237e-01</internalNodes>
      <leafValues>
        -1.2838210165500641e-01 6.1783111095428467e-01</leafValues></_>
    <_>
      <internalNodes>
        0 -1 37127 1.8352627754211426e-02</internalNodes>
      <leafValues>
        -1.2121148407459259e-01 5.2689701318740845e-01</leafValues></_>
    <_>
      <internalNodes>
        0 -1 49270 5.0997290760278702e-02</internalNodes>
      <leafValues>
        -1.1055591702461243e-01 5.4635602235794067e-01</leafValues></_>
    <_>
      <internalNodes>
        0 -1 42708 -4.7283321619033813e-02</internalNodes>
      <leafValues>
        3.8442105054855347e-01 -2.2929540276527405e-01</leafValues></_>
    <_>
      <internalNodes>
        0 -1 52385 1.2911653146147728e-02</internalNodes>
      <leafValues>
        -7.7444836497306824e-02 5.0953799486160278e-01</leafValues></_>
    <_>
      <internalNodes>
        0 -1 31367 2.5449234992265701e-02</internalNodes>
      <leafValues>
        1.0684934258460999e-01 -5.7393938302993774e-01</leafValues></_>
    <_>
      <internalNodes>
        0 -1 53218 8.5337301716208458e-03</internalNodes>
      <leafValues>
        -1.1742438375949860e-01 5.2804392576217651e-01</leafValues></_>
    <_>
      <internalNodes>
        0 -1 36718 -4.6223434619605541e-03</internalNodes>
      <leafValues>
        2.5110298395156860e-01 -2.3447392880916595e-01</leafValues></_>
    <_>
      <internalNodes>
        0 -1 43305 5.2151456475257874e-03</internalNodes>
      <leafValues>
        1.4248350262641907e-01 -4.5948871970176697e-01</leafValues></_>
    <_>
      <internalNodes>
        0 -1 42684 -1.0413629934191704e-02</internalNodes>
      <leafValues>
        -6.7452412843704224e-01 7.8153356909751892e-02</leafValues></_>
    <_>
      <internalNodes>
        0 -1 53218 -8.4753856062889099e-03</internalNodes>
      <leafValues>
        4.3255636096000671e-01 -1.1581776291131973e-01</leafValues></_>
    <_>
      <internalNodes>
        0 -1 41044 4.7755051404237747e-02</internalNodes>
      <leafValues>
        7.0658691227436066e-02 -7.4728155136108398e-01</leafValues></_>
    <_>
      <internalNodes>
        0 -1 47305 1.4712521806359291e-02</internalNodes>
      <leafValues>
        -1.2592110037803650e-01 5.2471131086349487e-01</leafValues></_>
    <_>
      <internalNodes>
        0 -1 73483 3.2897912897169590e-03</internalNodes>
      <leafValues>
        1.3070805370807648e-01 -4.7836229205131531e-01</leafValues></_>
    <_>
      <internalNodes>
        0 -1 29937 3.7809722125530243e-02</internalNodes>
      <leafValues>
        7.1003325283527374e-02 -6.5504384040832520e-01</leafValues></_>
    <_>
      <internalNodes>
        0 -1 57285 3.5647101700305939e-02</internalNodes>
      <leafValues>
        7.2738945484161377e-02 -6.7668706178665161e-01</leafValues></_>
    <_>
      <internalNodes>
        0 -1 75137 2.0261672325432301e-03</internalNodes>
      <leafValues>
        8.0776616930961609e-02 -5.8156406879425049e-01</leafValues></_>
    <_>
      <internalNodes>
        0 -1 64965 9.6188094466924667e-03</internalNodes>
      <leafValues>
        -1.3803389668464661e-01 3.7322264909744263e-01</leafValues></_>
    <_>
      <internalNodes>
        0 -1 2797 -1.4482057653367519e-02</internalNodes>
      <leafValues>
        4.0451684594154358e-01 -1.5606512129306793e-01</leafValues></_>
    <_>
      <internalNodes>
        0 -1 46761 8.6494214832782745e-02</internalNodes>
      <leafValues>
        -1.0764062404632568e-01 4.5076882839202881e-01</leafValues></_></weakClassifiers></stage5>
</opencv_storage>
