<?xml version="1.0"?>
<opencv_storage>
<stage4>
  <maxWeakCount>24</maxWeakCount>
  <stageThreshold>-1.4760249853134155e+00</stageThreshold>
  <weakClassifiers>
    <_>
      <internalNodes>
        0 -1 57468 2.2745907306671143e-02</internalNodes>
      <leafValues>
        -4.7742217779159546e-01 4.2355889081954956e-01</leafValues></_>
    <_>
      <internalNodes>
        0 -1 42765 -3.5353098064661026e-02</internalNodes>
      <leafValues>
        4.9296373128890991e-01 -2.3110361397266388e-01</leafValues></_>
    <_>
      <internalNodes>
        0 -1 41386 -1.2278080917894840e-02</internalNodes>
      <leafValues>
        6.0496199131011963e-01 -1.2627901136875153e-01</leafValues></_>
    <_>
      <internalNodes>
        0 -1 31049 7.0266947150230408e-02</internalNodes>
      <leafValues>
        -1.2803055346012115e-01 4.6765667200088501e-01</leafValues></_>
    <_>
      <internalNodes>
        0 -1 57438 -1.3564249500632286e-02</internalNodes>
      <leafValues>
        3.9180833101272583e-01 -1.9355425238609314e-01</leafValues></_>
    <_>
      <internalNodes>
        0 -1 65095 2.4072717875242233e-02</internalNodes>
      <leafValues>
        -9.8928622901439667e-02 5.0108075141906738e-01</leafValues></_>
    <_>
      <internalNodes>
        0 -1 69673 -3.4612711519002914e-02</internalNodes>
      <leafValues>
        3.6780455708503723e-01 -2.0878195762634277e-01</leafValues></_>
    <_>
      <internalNodes>
        0 -1 41386 1.1481756344437599e-02</internalNodes>
      <leafValues>
        -1.0032553225755692e-01 5.1016688346862793e-01</leafValues></_>
    <_>
      <internalNodes>
        0 -1 43407 -4.8784408718347549e-02</internalNodes>
      <leafValues>
        -4.8475039005279541e-01 1.7031934857368469e-01</leafValues></_>
    <_>
      <internalNodes>
        0 -1 43401 6.0439042747020721e-02</internalNodes>
      <leafValues>
        4.5731801539659500e-02 -7.4072712659835815e-01</leafValues></_>
    <_>
      <internalNodes>
        0 -1 51272 -1.2850620783865452e-02</internalNodes>
      <leafValues>
        -5.7101172208786011e-01 9.3737095594406128e-02</leafValues></_>
    <_>
      <internalNodes>
        0 -1 69854 -2.5901615619659424e-02</internalNodes>
      <leafValues>
        -6.9192540645599365e-01 5.2910931408405304e-02</leafValues></_>
    <_>
      <internalNodes>
        0 -1 64240 1.1139031499624252e-02</internalNodes>
      <leafValues>
        -1.3988068699836731e-01 4.8156610131263733e-01</leafValues></_>
    <_>
      <internalNodes>
        0 -1 61211 -2.6924863457679749e-02</internalNodes>
      <leafValues>
        -4.8331508040428162e-01 1.3717101514339447e-01</leafValues></_>
    <_>
      <internalNodes>
        0 -1 37621 1.0200938209891319e-02</internalNodes>
      <leafValues>
        -1.5608130395412445e-01 4.2139017581939697e-01</leafValues></_>
    <_>
      <internalNodes>
        0 -1 42638 8.1931138411164284e-03</internalNodes>
      <leafValues>
        9.3858487904071808e-02 -7.5560545921325684e-01</leafValues></_>
    <_>
      <internalNodes>
        0 -1 59681 1.5135043300688267e-02</internalNodes>
      <leafValues>
        8.5922345519065857e-02 -4.7313353419303894e-01</leafValues></_>
    <_>
      <internalNodes>
        0 -1 58277 2.3408358916640282e-02</internalNodes>
      <leafValues>
        -9.4535313546657562e-02 6.0808205604553223e-01</leafValues></_>
    <_>
      <internalNodes>
        0 -1 52538 1.0001712292432785e-01</internalNodes>
      <leafValues>
        7.0571579039096832e-02 -7.5925618410110474e-01</leafValues></_>
    <_>
      <internalNodes>
        0 -1 4569 9.2122673988342285e-02</internalNodes>
      <leafValues>
        -1.1839599162340164e-01 5.3864544630050659e-01</leafValues></_>
    <_>
      <internalNodes>
        0 -1 32007 -6.1702607199549675e-03</internalNodes>
      <leafValues>
        2.9553586244583130e-01 -2.0159512758255005e-01</leafValues></_>
    <_>
      <internalNodes>
        0 -1 46064 -5.5879671126604080e-03</internalNodes>
      <leafValues>
        -7.4309670925140381e-01 7.9833857715129852e-02</leafValues></_>
    <_>
      <internalNodes>
        0 -1 43250 -2.9016295447945595e-02</internalNodes>
      <leafValues>
        5.7275456190109253e-01 -9.9232271313667297e-02</leafValues></_>
    <_>
      <internalNodes>
        0 -1 41812 -1.3501498848199844e-02</internalNodes>
      <leafValues>
        3.7230199575424194e-01 -1.1828999221324921e-01</leafValues></_></weakClassifiers></stage4>
</opencv_storage>
