<?xml version="1.0"?>
<opencv_storage>
<stage7>
  <maxWeakCount>28</maxWeakCount>
  <stageThreshold>-1.2743277549743652e+00</stageThreshold>
  <weakClassifiers>
    <_>
      <internalNodes>
        0 -1 47785 3.0003514140844345e-02</internalNodes>
      <leafValues>
        -4.8306265473365784e-01 2.3047618567943573e-01</leafValues></_>
    <_>
      <internalNodes>
        0 -1 57438 -2.8321873396635056e-02</internalNodes>
      <leafValues>
        5.3800565004348755e-01 -1.5400816500186920e-01</leafValues></_>
    <_>
      <internalNodes>
        0 -1 57632 1.5061058104038239e-02</internalNodes>
      <leafValues>
        -1.1701024323701859e-01 4.7121909260749817e-01</leafValues></_>
    <_>
      <internalNodes>
        0 -1 35599 -1.4789228327572346e-02</internalNodes>
      <leafValues>
        5.6862264871597290e-01 -1.0860025882720947e-01</leafValues></_>
    <_>
      <internalNodes>
        0 -1 60356 9.0719591826200485e-03</internalNodes>
      <leafValues>
        -1.0913331806659698e-01 5.1306068897247314e-01</leafValues></_>
    <_>
      <internalNodes>
        0 -1 60307 -3.5860384814441204e-03</internalNodes>
      <leafValues>
        3.5400408506393433e-01 -1.2901870906352997e-01</leafValues></_>
    <_>
      <internalNodes>
        0 -1 40397 -4.1572488844394684e-02</internalNodes>
      <leafValues>
        5.1577371358871460e-01 -9.5242045819759369e-02</leafValues></_>
    <_>
      <internalNodes>
        0 -1 13023 1.1146254837512970e-02</internalNodes>
      <leafValues>
        -8.9964866638183594e-02 5.4966652393341064e-01</leafValues></_>
    <_>
      <internalNodes>
        0 -1 70830 1.3323563151061535e-02</internalNodes>
      <leafValues>
        -1.5172673761844635e-01 3.4102946519851685e-01</leafValues></_>
    <_>
      <internalNodes>
        0 -1 69864 5.6503705680370331e-02</internalNodes>
      <leafValues>
        -1.1078929901123047e-01 4.1921094059944153e-01</leafValues></_>
    <_>
      <internalNodes>
        0 -1 45873 -5.3964361548423767e-02</internalNodes>
      <leafValues>
        -6.3326627016067505e-01 1.3678681850433350e-01</leafValues></_>
    <_>
      <internalNodes>
        0 -1 42591 -1.4599794521927834e-02</internalNodes>
      <leafValues>
        5.8225941658020020e-01 -1.4322513341903687e-01</leafValues></_>
    <_>
      <internalNodes>
        0 -1 46594 -7.4050221592187881e-03</internalNodes>
      <leafValues>
        5.0167089700698853e-01 -8.6184278130531311e-02</leafValues></_>
    <_>
      <internalNodes>
        0 -1 58068 -2.0225217565894127e-02</internalNodes>
      <leafValues>
        -6.2274044752120972e-01 1.1375357210636139e-01</leafValues></_>
    <_>
      <internalNodes>
        0 -1 32976 -1.6378782689571381e-02</internalNodes>
      <leafValues>
        4.8423922061920166e-01 -1.3225835561752319e-01</leafValues></_>
    <_>
      <internalNodes>
        0 -1 71165 -7.7910432592034340e-03</internalNodes>
      <leafValues>
        -6.1225670576095581e-01 8.9279778301715851e-02</leafValues></_>
    <_>
      <internalNodes>
        0 -1 55746 8.6816344410181046e-03</internalNodes>
      <leafValues>
        8.6225591599941254e-02 -5.1398718357086182e-01</leafValues></_>
    <_>
      <internalNodes>
        0 -1 58294 2.7300268411636353e-02</internalNodes>
      <leafValues>
        -9.3016564846038818e-02 4.7227320075035095e-01</leafValues></_>
    <_>
      <internalNodes>
        0 -1 64579 -8.8880732655525208e-03</internalNodes>
      <leafValues>
        3.3573761582374573e-01 -1.3355205953121185e-01</leafValues></_>
    <_>
      <internalNodes>
        0 -1 69193 2.5519009679555893e-02</internalNodes>
      <leafValues>
        5.4410606622695923e-02 -7.9797035455703735e-01</leafValues></_>
    <_>
      <internalNodes>
        0 -1 77297 -5.5573498830199242e-03</internalNodes>
      <leafValues>
        -8.0171120166778564e-01 4.5865092426538467e-02</leafValues></_>
    <_>
      <internalNodes>
        0 -1 56955 6.2992442399263382e-03</internalNodes>
      <leafValues>
        -1.2577798962593079e-01 4.1648229956626892e-01</leafValues></_>
    <_>
      <internalNodes>
        0 -1 59498 -1.7165582627058029e-02</internalNodes>
      <leafValues>
        3.8688015937805176e-01 -1.1907544732093811e-01</leafValues></_>
    <_>
      <internalNodes>
        0 -1 54146 8.7732234969735146e-03</internalNodes>
      <leafValues>
        8.3049908280372620e-02 -6.5848875045776367e-01</leafValues></_>
    <_>
      <internalNodes>
        0 -1 47923 -2.6811854913830757e-03</internalNodes>
      <leafValues>
        -4.9377068877220154e-01 7.3691092431545258e-02</leafValues></_>
    <_>
      <internalNodes>
        0 -1 74790 5.0476961769163609e-03</internalNodes>
      <leafValues>
        -1.0316068679094315e-01 4.2332842946052551e-01</leafValues></_>
    <_>
      <internalNodes>
        0 -1 37882 -1.1413776315748692e-02</internalNodes>
      <leafValues>
        -5.5509120225906372e-01 8.7703056633472443e-02</leafValues></_>
    <_>
      <internalNodes>
        0 -1 76470 3.6676805466413498e-03</internalNodes>
      <leafValues>
        5.4862812161445618e-02 -6.9942849874496460e-01</leafValues></_></weakClassifiers></stage7>
</opencv_storage>
