<?xml version="1.0"?>
<opencv_storage>
<stage18>
  <maxWeakCount>28</maxWeakCount>
  <stageThreshold>-8.7465053796768188e-01</stageThreshold>
  <weakClassifiers>
    <_>
      <internalNodes>
        0 -1 61445 7.9636008013039827e-04</internalNodes>
      <leafValues>
        -1.7905589193105698e-02 5.4710459709167480e-01</leafValues></_>
    <_>
      <internalNodes>
        0 -1 61116 -3.9162025786936283e-03</internalNodes>
      <leafValues>
        1.9186459481716156e-01 -3.4672459959983826e-01</leafValues></_>
    <_>
      <internalNodes>
        0 -1 38283 2.1961206570267677e-02</internalNodes>
      <leafValues>
        -1.3001197576522827e-01 4.3698146939277649e-01</leafValues></_>
    <_>
      <internalNodes>
        0 -1 68385 3.9596618153154850e-03</internalNodes>
      <leafValues>
        -1.0129687190055847e-01 5.7632070779800415e-01</leafValues></_>
    <_>
      <internalNodes>
        0 -1 61475 -2.1003272195230238e-05</internalNodes>
      <leafValues>
        2.4622258543968201e-01 -2.6981243491172791e-01</leafValues></_>
    <_>
      <internalNodes>
        0 -1 61259 -1.9380716548766941e-04</internalNodes>
      <leafValues>
        2.7944824099540710e-01 -2.0130637288093567e-01</leafValues></_>
    <_>
      <internalNodes>
        0 -1 59541 -9.6472343429923058e-03</internalNodes>
      <leafValues>
        3.2048967480659485e-01 -2.1350330114364624e-01</leafValues></_>
    <_>
      <internalNodes>
        0 -1 36215 -5.4520583944395185e-04</internalNodes>
      <leafValues>
        3.9918673038482666e-01 -1.4613018929958344e-01</leafValues></_>
    <_>
      <internalNodes>
        0 -1 9379 -5.6632444262504578e-02</internalNodes>
      <leafValues>
        -5.4907619953155518e-01 1.1030136793851852e-01</leafValues></_>
    <_>
      <internalNodes>
        0 -1 72388 9.4197527505457401e-04</internalNodes>
      <leafValues>
        -1.5114168822765350e-01 3.7084391713142395e-01</leafValues></_>
    <_>
      <internalNodes>
        0 -1 57593 1.5189798432402313e-04</internalNodes>
      <leafValues>
        8.1485338509082794e-02 -5.5749917030334473e-01</leafValues></_>
    <_>
      <internalNodes>
        0 -1 62053 3.8200341805350035e-05</internalNodes>
      <leafValues>
        1.4266420900821686e-01 -3.7746167182922363e-01</leafValues></_>
    <_>
      <internalNodes>
        0 -1 39300 2.5530559942126274e-03</internalNodes>
      <leafValues>
        -1.1970983445644379e-01 4.7942227125167847e-01</leafValues></_>
    <_>
      <internalNodes>
        0 -1 30974 8.2680024206638336e-03</internalNodes>
      <leafValues>
        -8.6522519588470459e-02 5.2158033847808838e-01</leafValues></_>
    <_>
      <internalNodes>
        0 -1 64433 2.8810855001211166e-02</internalNodes>
      <leafValues>
        9.0644687414169312e-02 -6.7121964693069458e-01</leafValues></_>
    <_>
      <internalNodes>
        0 -1 55757 9.8743541166186333e-03</internalNodes>
      <leafValues>
        5.8483608067035675e-02 -7.4734532833099365e-01</leafValues></_>
    <_>
      <internalNodes>
        0 -1 53895 4.0707894368097186e-04</internalNodes>
      <leafValues>
        7.4266120791435242e-02 -5.6003701686859131e-01</leafValues></_>
    <_>
      <internalNodes>
        0 -1 74505 2.8074388392269611e-03</internalNodes>
      <leafValues>
        -1.5698644518852234e-01 3.2207962870597839e-01</leafValues></_>
    <_>
      <internalNodes>
        0 -1 39180 -1.6105032991617918e-03</internalNodes>
      <leafValues>
        3.1879788637161255e-01 -1.7693367600440979e-01</leafValues></_>
    <_>
      <internalNodes>
        0 -1 57796 3.3883664291352034e-03</internalNodes>
      <leafValues>
        -2.1642588078975677e-01 2.7693894505500793e-01</leafValues></_>
    <_>
      <internalNodes>
        0 -1 25466 -5.1147183403372765e-03</internalNodes>
      <leafValues>
        3.5542076826095581e-01 -1.5417246520519257e-01</leafValues></_>
    <_>
      <internalNodes>
        0 -1 60829 -5.2174727898091078e-04</internalNodes>
      <leafValues>
        2.2351197898387909e-01 -2.7017965912818909e-01</leafValues></_>
    <_>
      <internalNodes>
        0 -1 64325 4.2643988854251802e-04</internalNodes>
      <leafValues>
        -1.2523733079433441e-01 4.0007290244102478e-01</leafValues></_>
    <_>
      <internalNodes>
        0 -1 60547 -5.8854669332504272e-03</internalNodes>
      <leafValues>
        -7.5465571880340576e-01 6.4003497362136841e-02</leafValues></_>
    <_>
      <internalNodes>
        0 -1 58413 1.3101369142532349e-02</internalNodes>
      <leafValues>
        -1.1801359057426453e-01 5.2694481611251831e-01</leafValues></_>
    <_>
      <internalNodes>
        0 -1 11057 -6.8145804107189178e-03</internalNodes>
      <leafValues>
        -2.6850196719169617e-01 2.1411120891571045e-01</leafValues></_>
    <_>
      <internalNodes>
        0 -1 44454 1.8812224734574556e-03</internalNodes>
      <leafValues>
        -1.5186093747615814e-01 3.1819549202919006e-01</leafValues></_>
    <_>
      <internalNodes>
        0 -1 35515 -5.2477311342954636e-02</internalNodes>
      <leafValues>
        4.6904674172401428e-01 -1.0505107790231705e-01</leafValues></_></weakClassifiers></stage18>
</opencv_storage>
